function [y1] = neuralNet(x1)
%MYNEURALNETWORKFUNCTION neural network simulation function.
%
% Generated by Neural Network Toolbox function genFunction, 12-Dec-2015 18:36:48.
%
% [y1] = myNeuralNetworkFunction(x1) takes these arguments:
%   x = 13xQ matrix, input #1
% and returns:
%   y = 1xQ matrix, output #1
% where Q is the number of samples.

%#ok<*RPMT0>

% ===== NEURAL NETWORK CONSTANTS =====

% Input 1
x1_step1_xoffset = [98.103852172515;25.8624446159253;23.333494646454;27.1189697793257;28.1495603515529;36.9481659886091;39.1831483036417;38.1102971340032;37.5205779639401;34.784217779215;36.469696782758;34.3284272313057;31.0986379042196];
x1_step1_gain = [0.00334956898068689;0.0230821646377604;0.0148560483567955;0.0166479965452649;0.0241746134896613;0.0161554107898893;0.0192234902116433;0.011534463221035;0.0181194092513581;0.0211040288454768;0.0174493992086883;0.0181477638557725;0.0186208982172834];
x1_step1_ymin = -1;

% Layer 1
b1 = [1.9915816176985017272;1.9609491900202642434;-1.9137519339173381105;1.8752417550261355483;-1.8193748207933702066;-1.7186159203232671544;-1.6343261052732214189;-1.6729706115749585216;1.6650870445754093474;-1.6765003971431369223;-1.7430895863418749414;-1.5654191665905545783;1.6483109796183368356;-1.458111115715481354;-1.4111047186264684683;1.4096281369333396594;-1.4532554473586385413;1.350914556045421433;-1.2274337138686273185;-1.0636189194311687078;1.2519274014231329684;1.1727949635460768185;1.0061909595410634122;1.1175034930774061515;1.0741149423872535795;0.86037580347372721867;0.87898707048083934978;0.87691103032081296753;-0.92855957662107302397;-0.70774475446761420105;-0.56927965688638904052;0.77774791439545598593;-0.70104569780527858924;0.74304229928412712791;0.64916381569469427948;0.61097815173389768972;-0.37450079152818505079;-0.41725753462112991077;-0.44779369196476442871;0.49245441056208283381;0.38278877202695149595;-0.32623233701829418285;0.29372296342897624699;0.46546930019196808281;-0.22408414693014377939;0.19125563801414446896;-0.1214702248994130318;-0.17293060707647300855;0.010103705272820050556;0.18477389222482715203;-0.15630217419484979113;-0.22105822866837343543;-0.056687254408563279851;0.3182423418790314984;-0.057479256120663915763;0.25072370508798086375;-0.16082999698377112296;-0.3229911720460678648;0.38845716490885406902;0.36585228137566089268;0.47449439388217606872;-0.44420952865737545201;0.50984388927615342801;0.61444408790445015356;0.70834627728114551992;0.35163122340555030831;0.80476251759437655853;-0.72801293225310637069;-0.72959293132769642565;0.80320998486392847227;0.7994546606364413277;-0.81472693613727276141;-0.92834023260551867818;0.95293310563306388161;1.0747198284703853854;1.1959912573752007336;-1.4341085934733066587;1.0718248161234049665;1.1567340923812705622;-1.1120731420991880611;1.39930572341447923;1.2602061541932993993;-1.6332870223914421892;1.3564438819363542343;1.937977773597995057;1.4736897588910951029;1.4839373416394618932;-1.375134337969280196;-1.5038628314257018737;-1.6046736154490033321;-1.7183704911183845798;1.7864779139903239624;-1.7307181560123596764;1.7718750548339492479;1.7298923538006727441;-1.8229218089272767322;1.6422702195906304645;-1.8809539153871670525;1.9391837383748657953;-2.0072518277957271948];
IW1_1 = [-0.27307466749971087694 -0.41530010842206327437 -0.97016161334044670461 -0.18955734939074816991 0.39250670994172198736 -0.47769400078527674003 -0.22955785779340953656 0.67918229649672356985 0.093245522668482419548 0.59165165254847817966 -0.868883834919284892 0.8449116228507123072 -0.20200385540158702358;-0.66313965333681790248 -0.24298153533372507384 0.088797535567503069198 0.069570258651127162008 -0.80263442434558918137 -0.79826770766887478192 -0.22853995558556236545 -0.45855488341388128681 -0.17154276900770334957 -0.83713605458595963249 -0.7027805482475847354 -0.80803118477844027012 -0.21496449882671730958;0.30419546372098732467 -0.28652288339622361546 0.24033608962353664174 -0.94013016572513963265 0.62488651971807629426 0.34695969951117749952 -0.41885476733774085201 -0.23770568584439655258 -0.54672648921122324328 -0.55720475103199273992 0.50541173401940187038 0.53291920572985762572 0.98646567750634917005;-0.3098483529267319625 0.2920831436388979796 -0.24327113495838204038 -0.72284791351677812887 -0.82097853120693742301 -0.59323723849912446404 -0.93942253567104228029 0.68362126576380011223 -0.54745637842371219772 0.67311879040999988977 -0.19182086557274546923 -0.22554229740821790662 0.034789281284121044424;0.06938615338675838129 -0.32057720951918600161 -0.10620691779453600434 0.20737127769958921264 0.46762271003649513723 -0.43887430716796366204 -0.86486513900441930325 -0.94464880390870620275 0.98269607801261871227 0.40136535806462703135 0.63759093402686295438 -0.030478796517760035206 0.50280894763771288858;0.14849969084837794098 -0.068456815450862448791 0.39733549426775593982 1.0070864101967305082 0.23578648348227951304 0.0082120256642986087098 -0.72078354533026967044 -0.72450078882649004974 0.68395095788371274015 0.25963671943756899685 -0.85595130366131322308 -0.014180150379809009636 -0.80107387625471049297;0.35275207772730726719 0.75479332925745545868 -0.90662392178801642917 -0.071347621419825688061 0.34001102640640828989 -0.76829105381023543586 0.28488015057854093603 0.59493664775757115759 -0.61320408567294859559 -0.78937379905967486327 0.18105345374948336734 -0.82248486779220875142 0.11394112599528348484;0.68639886744053679735 -0.15875516611385101506 -0.81266583276288273385 0.75867201078469037601 -0.070660300477696669219 0.05406070265423645882 0.41980077776431290459 0.4389709446286291783 0.5090264646284556882 0.6529648804395202788 -0.2479763600705691684 -0.77253402124675119023 -0.73766239945476619333;-0.80059125949063680849 -0.16031438498928821113 0.60841489338903054218 -0.0642456537532295896 -0.73864879798405880251 0.029532031854120982528 -0.36302842528378981291 0.51070555997936517567 -0.93452510208588335239 0.55741769838334886966 -0.12429739860686002395 0.093661749723243439836 -0.89253169596318682188;0.040564364593158756811 0.013227085703892671117 -0.60379099019745163801 -0.15888625143057541478 0.77549584954418615546 0.31435021510526545141 -0.2362594959338439049 0.27079288939629070354 -0.88474766510397939712 0.46040868465391826536 0.80129342867839614684 -1.0001774218407688544 0.18075776406841365107;0.2480217376386289474 0.62374106356889236213 -0.71609694425138559204 1.1076471037812471998 0.62508609556416627751 -0.6326418203846893018 -0.50235652934774477352 -0.28028341773585574437 0.57947712385416572101 -0.6466396131337577291 -0.29770593076517559705 -0.56836690952455926062 -0.52273772608799218276;0.54438481693980445009 0.98344786224674840547 -0.29893300948741102774 0.28893449372952151322 0.30748486882873882209 -0.52110822870022210918 -0.098515552248858231921 0.31188039397565686661 -0.42373590547317208088 0.73367330624541526873 -0.25896770059935442232 0.91014106419722951014 0.66493185715978775363;-0.57493634789561764986 -0.066806207255387203836 -0.72866499092009939798 0.41936563576134283648 -0.35618903607335106187 0.46827130500231345378 0.68772110524291751865 0.3166620827252421555 0.041433569716430113106 0.74760789724659248989 0.56607151323544502297 -0.44444245420953354397 -0.67274708444787989503;0.11015302090121616152 0.31649832743007255687 -0.24199394873838334097 -0.34988638700284702132 0.0074412578791781579593 -0.1378219475333029298 0.67185043760253859713 0.8052801267785651973 0.64342526950409018038 -0.7160357073064910205 0.85330712822382348559 0.74440548837408804239 0.59697560220224965555;0.38301269360608303227 0.54910331687413005408 0.69921823072276956257 -0.022539941440679549245 -0.66037729469069039734 -0.63008841635432699668 -0.10003813326853623622 -0.21923362720539410486 -0.8281066178108705822 0.78693247173748281931 0.54373906216300826877 -0.79758340044417752601 -0.12192067454088992284;-1.1031608836492212689 -0.3408419299077861675 0.65589680240912373588 0.29113339562832296625 -0.23087305107932934445 -0.5309770601780789967 0.50366685188163640152 -0.93829424287099338908 -0.43286310721637938359 0.25114718907407918014 -0.44851439473188797757 0.075898137141305013764 -0.43114989654387464446;0.37437320046612104774 0.13947845181270351889 -0.6448393373534050399 0.95263144619497031051 0.27315280867825081357 0.18289815745972709538 -1.1246529310396675694 0.46932553336108767672 -0.25087513365670027765 -0.58300028127806269307 -1.0647357076230976602 0.43529111383468055418 -0.25250758121065586259;-0.20568096204821248452 -0.54960392899963017577 0.57708532622528230238 -0.15729232199691406402 0.61696657475376481816 -0.0079380198111182621173 0.57178235026346935221 -0.55243192379541661285 -0.81322294326148703014 0.33608706636468821394 -0.55389320421895760216 -0.81047111333135901656 0.67915931589750555553;0.86141355864081203819 -0.40846904552002050171 -0.021025808632063994891 -0.8511585108205793615 -0.81640407783281754295 -0.20852971642017589793 0.79607137398028782194 0.49185288973634971876 -0.098953977040543331101 0.36678607934459600548 -0.46690793142603098653 0.52000920225629210236 0.2924734165973670863;0.17759299252247703893 -0.66169494917958537883 -0.71269944743466928649 0.70670561661173003642 0.33359661312661326171 -0.34901351954732950933 -1.1695040043366102811 0.26760012138880134858 -0.086047230126358897895 0.79979663425305602686 -0.2226331093164343744 -0.36999154986615778729 0.50905231947118823044;-0.1902370706900503583 -0.18429036180669750022 0.53937329131512612435 0.55505282880021755698 0.45773058054767512548 0.72592120912247282138 -0.13777676356517809531 -0.58781520722637325971 -0.52935524088337337911 -0.9459305709326462086 -0.25465922602685336917 -0.64657303842688484963 0.7174577060469833345;-0.27438751480901563129 -0.43355697977619106487 -0.13458083771590320654 0.34423378566639256659 -0.80378214263327263378 0.30011891736352913629 0.64748180454812942486 0.063441239735599258553 0.18198316125182995018 -0.7858904013643319697 -0.95732917910721182508 0.35797671694365867934 0.83166020847065846855;-0.66155947631540024112 -0.025184861931740590291 -0.57680707247176954411 0.57614230518297293582 0.69722038665956076464 -0.017884015488366086788 -0.50368217580480811879 0.25586530715987881868 0.35699141396219424838 0.34528566391263837421 0.88953412600381787101 0.81465813493854077887 0.7945552859280229363;-0.61118925122642719927 0.48996116924857074926 -0.24172424938134579042 -0.20666775711670418159 -0.81179346378586370037 -0.93240513900831145655 -0.32724273046678359345 0.67648721105697395828 -0.2641696526866620931 0.51723531222077401281 -0.76995479684266998621 -0.39856111956560880127 0.27181422982519964915;-0.14948377867948298148 -0.43883270822859365978 -0.10372031229465934754 -0.61392167029703625936 -0.68570527493322408485 -0.42038803087073828291 -0.49593441770905177801 -0.79810819796779042257 -0.68970207284396911618 -0.76035577937732146125 0.53153570095580437993 0.67200426035902860455 -0.20495701371074287467;-0.46995828430507891049 -0.83906842356539657057 -0.03071887938679747701 0.35017155981663306008 0.59390445358292720535 0.34305886125386508834 0.74958265308435645391 0.15452680349400255144 0.4880318885797264028 0.38371483487716467886 0.89117785542926086784 -0.22884309758368923116 0.89351307823341630243;-0.71584067186069311184 -0.82944006462942498903 -0.43282091885312484747 0.73858526177245475974 -0.70455327069790041339 -0.00031593553443286860908 0.49658183388889909349 -0.73574391080479484284 0.40416765012003552648 -0.1194415093787180443 0.65819751535107384743 0.080431253694325383075 -0.49691525681860615471;-0.18279245908818647637 -0.60678361913901568414 -0.10066517607717621885 -0.73445921866882046825 -1.1124508044538985452 -0.19892158374711099711 -0.51258105079975957441 -0.34405829337735677198 -0.32646909351264907784 0.58454907777158382487 -0.75493669031272514491 0.24114585915750397227 0.57837959009346995298;0.8971627305932269314 0.55252723580430862516 -0.16272707301052519169 0.088168778153257187924 -0.93169059930891140464 0.49830048065702714499 -0.059031014209844627494 0.52796052299142115505 0.51001912317644704231 -0.27604387246344408435 -0.58957214404940927466 -0.14619831309721292856 0.77639203226775443945;0.082267550626510810297 0.95921097621558704116 1.0824401374006296095 -0.15481120086342228803 0.12084368699058326002 -0.55011194149389952557 0.55036651505254807759 0.073904794693975484066 0.4180662991702915332 -0.707182770149925366 -0.3719275838453517391 -0.85768290274456293609 -0.069290767187593416132;-0.11881420547430866785 -0.39384218580141983068 0.24903912907951120115 -0.75870508725407481698 0.9685572309132829405 -0.65301085952852822025 -0.49867009295039910199 -0.93875254525193607691 0.21479218256886395411 0.83005397887194509732 0.32921608416665470997 0.27155453492484338263 -0.41702850588044454438;-0.39638442952248942319 -0.1405046222697295677 -0.00918664293329084225 0.59989139321682938277 -0.75775311728252503496 -0.014055476752408185143 -0.41277834675579999635 0.75394061952746882493 -0.36943562672832391813 -0.79777739202939279561 0.84959029158403398529 0.53048937932495554559 -0.56819933486597640204;0.14233863075240602014 0.02401049422833395619 -0.38164594853007050013 -0.33317097223939362571 -0.81572220426951080885 0.99996131344585359457 0.80367810160953834231 -0.85004090916364394293 0.21196536680607500069 0.19407835407266285643 -0.64164037282948294116 0.10964431848600179886 -0.50363763421680851629;-0.43672386129850193637 0.74060717619582749904 0.20781576769616608158 -0.84251064467041170136 0.27382389560048175925 0.44320778039651465008 0.0080904024724645813571 -0.42971578709653052153 -0.72976121111200786817 -0.65420200428639951884 0.80914961845457955558 0.13051296359083192078 -0.62498175950503531695;-0.8421826879216477435 0.34354886009219071097 -0.28365328456805499746 -0.66390312252723437947 -0.5304028865581239538 -0.67406559021783751806 -0.2299273715295021836 -0.89023531631910823858 -0.64611173235910202006 0.41077363887337187132 0.57722981482131852093 -0.34288814912765724907 0.026920576106060394722;-0.072999400699770997103 -0.011554406665107248495 0.48663951213583289679 0.061353383522634835634 -0.67911754109439059768 0.30940972159929414076 -1.0833856274154807231 -0.58569663198286037176 0.065788452714910794494 0.31993985346914105561 -0.88112985873129889836 0.23952847215681541404 -0.85971879408395646127;0.45122462288705161848 0.82298740888723320719 0.92718287233716012441 -0.49451680809535192296 -0.74532656036712963132 0.52216027633365913463 -0.12933862463981582458 -0.72171313046380758394 -0.51409313062584172105 -0.1785960173012152985 0.06859914022845435555 0.73631711255721821185 0.24250146163023919565;0.44855648070252840398 -0.001415154970054922955 -0.30613406349567556797 -0.13322368714195084727 0.82627352289031219534 -0.31537043629387495614 0.38847288896213721943 0.56048847049733530046 0.24370720647501864509 0.59895914560251606318 -0.89225023239850131951 0.87814895294651607038 -0.71564658962103455675;0.19854777991264810355 -0.96200679853529502683 -0.41715006973485529995 0.60335167747078821687 -0.14163086157441581725 -0.42010328218362830155 -0.19264063779469384197 -0.89233318007357820267 -0.027186831069871370686 -0.34314877602218069041 1.0326975152187625184 -0.42937749859491131099 -0.17045132640136070878;-0.26353365997754618633 0.21506116423959548145 -0.92541466336803390735 0.74138626104198956934 -0.11614375540521700014 -0.64176566896766562564 0.31796182181134141631 -0.68362438085133692134 0.12063695547387104368 -0.82967040891564614036 -0.64781798677057411684 0.17702407646633550042 0.58379499734943629541;-0.80940031616469199083 -0.0025843030632156393546 -0.53003300055508617561 0.13678379151750608145 -0.55493486631158639444 -0.57985254144014208855 0.83744933421919554029 -0.73585081249998329778 -0.63862899610322088062 0.22208835408450200433 0.69358092272124072242 -0.15223414262740145309 -0.41817941723183554847;0.10901501270111770003 0.73616719860805845954 0.68450790565421226752 0.60183394912025289791 0.75604958722116244463 -0.89315057151276711078 -0.70667213078806878634 0.4558473851275732236 -0.14448990541502035323 -0.47087252052042405381 0.20563626616698885141 0.037970082326520174232 -0.51941889513565631109;-0.42553521385121090281 -0.94657790751539416796 0.25503593452025535848 -0.26623520287303487075 0.56046819355412180741 -0.71100932497703395185 -0.71892678834081247263 0.17426199441655004785 -0.17793657203018151125 -0.92416642321811570682 -0.18906833139742162953 0.49504325316484626418 0.51248228763870096181;-0.4529068138036231872 0.8650760381909108343 -0.086228494826531679185 -1.0301184251514170498 -0.67697627799733361975 0.55205238222250319069 0.71529509833036475364 -0.42293252658190078064 -0.17746258334464207196 0.77379543799262884285 -0.26231039678359807654 0.07325649782973925328 -0.08591860878599087703;0.050895038312767787447 0.6303385103551061297 -0.53300124692900063827 0.68299756019534796359 -0.53576985624301820543 -0.68122370702566403811 0.43592054093697440997 0.24028090056490844506 0.37829990848211575427 -0.71885312728325201359 -0.65160856583772985839 -0.15429156022257747849 0.86354152735433109545;-0.30104054920475753487 0.45294619213278458636 0.15521034189046231666 -0.2294196557188984964 0.5313199603531620907 0.86658227200489001962 0.24823892734219424328 0.73025525984054995288 -0.52286725982706805382 -0.53808641850242344695 -0.91494636808186580179 0.71483990833323485248 -0.071924473066356076068;0.54418219055937089301 0.47944273344263771408 0.68750982090608347974 -0.21248069156908752642 0.0061681698670487637715 -0.59719705248174470569 0.63307116636149196598 -0.46262741146996855246 -0.5048630760200748524 -0.74117785520879042593 -0.7985534674363904406 -0.64122197736564545689 -0.31788034052003460994;0.60464514490763299204 -0.61999636091649568126 0.49176674555979565939 0.92326154768621637725 -0.29049156979437057435 0.014190565642926370599 0.098577984467608847918 -0.19221703628457215141 -0.86599020061631060141 0.86390552566139966473 -0.72290492095140734818 -0.74664787590128167682 0.41938302095516905021;-0.45437909430119327592 -0.38132475998067449918 0.14586666550550411725 0.88769437901363856813 -0.80858421606471364562 -0.54634430290664259822 -0.42348770003135421947 -0.57158452587091057584 0.1080992992837929989 -0.65451666242280348573 0.93727562586153623236 0.21546707806216464087 0.2339545348798462987;-0.34105850244303337337 0.85591713781476663758 0.41372243661615909494 -0.91375511053471591971 0.40455032890649689215 -0.047778359598858843871 -0.9345470670852553674 0.55629981196149302924 0.060344108902445937892 0.32280431787907221119 -0.72774133554849251837 0.59278845469717811323 0.17125871176081380876;-0.42998717230527283562 -0.47022016714731862397 -0.22515329786667998002 0.4320566133332896519 0.9177939913656257831 -0.13829384617108808619 0.69666687549016115266 -0.81536952596955791783 -0.78945139756492355154 -0.72720357385256073623 0.46390124993665482478 -0.2377960683717483259 0.24381515191529928854;-0.023120239593490053004 0.59944807042113779083 -0.70932510937386727967 -0.69810624611035976272 -0.814820937395913103 -0.86921003247252826007 -0.78971934609288907403 -0.038704343468894127078 -0.2645529473172972823 0.41793880285639861683 -0.42557028941428420854 0.022357530972860802793 0.39756516912424622046;-0.10756026929375389622 -0.011946001720605083779 0.22571404252676924296 -0.19791521139146969754 -0.73087203380456100543 -0.74815395358490710542 -0.018805496400757185788 -0.62317406165729993806 -0.80058021221035347015 1.0012289679555026467 -0.59988757096023115345 -0.57744321627678241171 0.27888129924364574164;0.76641886343898191214 -0.58189743034157259682 1.0401962586548521017 0.66451843602284721424 -0.60137642078197917073 0.47977663133584241839 0.29062094925241122034 -0.27732028600259173157 0.60275091387725188152 0.42503301735141563178 -0.053642454181609906805 -0.50581646043042560734 0.4016704789246426377;0.76735983171647814682 0.28845392997219515552 -0.31060261676109829354 0.33843773964671880483 -0.60841542899142808665 -0.32608529079355502711 0.56379901063095794189 -0.70376880192442725637 -0.27822624218343811053 -0.53592115951973295918 -1.0448638374478529389 0.25622130552562100148 0.44363469716436498835;0.24556213220604428127 0.43349099858917328199 -0.024298193106907312044 -0.83579321565945596806 -0.40476085887984009082 -0.32375005091297914817 -0.38384447738245369708 0.15139873098264278184 -0.010769225200464339898 -0.64327640201248947882 -0.99310328893812982454 0.56731868252081596449 0.89610191207529432678;-0.069260848504335351117 0.26922998171006518042 -0.45755716775483545877 -0.80708409847027784423 1.1573472124013726159 0.54521587785315073216 0.69046464427674214548 0.15340593824799242384 -0.5454152842253587874 0.67477124570259228165 0.23704787676730251778 -0.25248902614169571601 -0.013645380136109008101;-0.38950770436279985587 0.35090819745041729183 -0.92441820333091540007 0.34655025638888742323 0.030048748675876268271 0.21107809943606836711 0.120065881127347035 -0.69217393879930999567 0.86880373011971334662 0.63473961388693855845 0.81852457776011511292 0.060639161886821023317 -0.63840471701710022057;0.75297506153284188279 0.69532866539920690219 -0.10875426500560922416 0.82594511698048933557 0.16308397536908314507 -0.16934690484224715346 -0.58582956025533461375 0.88536051124047399075 -0.72406203878271102603 -0.17957975094617059653 -0.56184347580133608968 0.3276714748715213732 -0.16761270278159837166;0.33972328679932234374 -0.0078116774592863601895 -0.52651384665511913319 -0.35795004378742756312 0.16440099464962099063 0.6273264056538090383 -0.78684692654472554452 0.49827898692940675307 0.7042181339213978708 0.64526145008049429208 0.97101975655416938871 0.54201711690445353309 -0.18169420110550194014;0.49835376971788819533 -0.49561465806197263495 0.37492905733475051511 -0.21021927200122367263 -0.086799530026567164875 0.42913518268437617076 0.33235395465164307982 -0.93139784641302780788 -0.53048326228035058705 -1.0376146465385107653 0.03458076999774786775 0.034628365199915925321 -0.87803276077277681022;-0.50588935473233387352 0.86448982523143858003 -0.1748643931347126923 0.30254254151968362763 -0.74773416270938675154 0.80025103021655030755 -0.63629013506377118947 -0.7155366182547125975 -0.44599063994223192564 -0.54996904503153998256 0.2667044506539312243 0.24637734827617441269 -0.342288288723745171;0.5892873442508382853 -0.012846676448961057149 0.74876374307340742842 -0.88889292124356966696 -0.55699530871476021776 0.71169735026345437578 0.50127203202100600876 0.045391336199714325816 -0.29376340834269193403 -0.42630476496430913524 -0.56646133349901417464 -0.72539023297029081583 0.30749486496171507532;0.3312188283681298806 0.6347242729910779202 -0.18827191585413102781 -0.13967800103054567318 -0.20764479879120706363 0.19016337137472860697 -0.63010640111319149437 -0.35861515938455645891 -0.67786572886044949016 0.86141387675190339568 -0.82212952721988397098 -0.58736788481014590158 -0.8046832115688431486;0.56798658713345295812 0.63013959315520773341 0.064307558228762384811 0.040007436776145460788 0.14975367285274365781 1.1179218031094917407 0.25746591596864365492 -0.078791070460228901373 0.78145064428960908653 -0.72472457927930378219 -0.104981301985924938 0.053086606129126044651 0.98678501501297921639;0.68991680094819696212 0.11665184973878439667 -0.6646499015671916144 0.97748496284640851162 -0.02114983400381957937 0.067937182779755841966 0.41896240766092435193 -0.6644754587340591101 -0.75266506774031649574 -0.11717292823665369228 -0.25498257348925729149 0.43151496300959685248 0.96186345530119354841;0.053102158777527115607 1.0303479187023323327 0.16159028699547789421 0.045048380522915015822 -0.089492219111483597982 0.19873001373188525776 0.50197379300547773084 0.99776081148511219787 0.52070581694525364114 -0.33532598909799288256 0.06968523763979718455 0.8244677886795241939 -0.82521853905578845811;-0.8193499216156574505 -0.80026355949466010387 -0.20580391811267004232 0.46392853869786121468 0.76341536491146733123 -0.20420205231881424779 0.65509071928357343051 0.48770504066845932201 0.47344239698516338288 0.58963621727442705467 0.22570314827916246325 -0.59007306472995280089 0.34588514841767320496;-0.061033020838343436665 -0.88153444544100523217 -0.61166959723361813417 -0.020643325109006557816 -0.087379692117155016717 0.60849132291537189055 -0.0098768112366657122986 0.80278124370111614283 -1.0543573524694473953 -0.81740867509744008501 -0.51848255512590357696 0.33898182911594465505 -0.17107241663491701278;0.41145774295033410439 0.52657601183435298609 0.61130770410887103061 0.81006780356389396225 -0.61610390726512376247 -0.18463053354783576232 0.91401964759258569337 0.37374662926402668628 0.63321505007511247332 0.059520661476960404213 -0.3828743764034027719 0.099265501789109214514 0.73797170062574501959;0.48412023525867903251 -0.66035529348469479416 -0.60682857218152674861 0.24455467867285185513 -0.36794505962093287943 -0.36988080364475273143 -0.69171551874053172071 0.53054383334938903793 -0.64502180681805088014 -0.17973179318313597941 -0.79633097663514329501 0.71098588188638689456 -0.48620237914686892378;-0.083716145956160267771 0.2582781954869203811 0.16900773920672870765 0.028474952393456501309 -0.89636087183710244641 -0.42042110325622628064 0.86584879040980677889 -0.51519498069258451434 -0.82001260122659413998 0.78503192843072644447 -0.74349723914874676911 0.16406623748826207332 0.29345951778265461085;-0.63783276431074864554 -0.02953484745546994944 0.54238531933522049489 -0.70781095262897864018 0.49480332928720982544 0.42651149529914345049 0.56567346058524314856 0.47806403998156998814 0.61926327891551957716 0.69703242995368885904 0.70439479234940383101 0.67888925254692411571 0.061442883534568899784;0.34644933178363251924 -0.033873209425254034721 -0.25266140260277974994 0.23709153375671510044 0.81578287072071964392 0.38677006436550365187 -0.86037954423824569705 -0.46753135108287352528 0.45131753278680064589 0.94089899047516944997 -0.59845067420143127634 0.71897593072836640804 -0.021497335636942109527;0.87163816437893659739 -0.22221680716944572365 -0.40125846388432157008 -0.32252704613854743521 -0.021112919048176709974 -0.21263882754636254102 0.42161392568853933716 0.66072247657242222374 -1.1413892728002710264 -0.36052456787243031266 0.52710344634217243254 -0.37934433935886358036 -0.5768333291549164743;0.85825102967371247331 0.17236238304465500981 1.0057597504402269184 -0.60816308749500302966 0.28851030368146496352 -0.27641416917492933614 0.78771895293703475538 -0.27146057940906387351 0.098081125478781533422 -0.3092206907657624182 0.26261301752661864173 -0.1862753007302777597 0.82788434507037500509;-0.73808655207563578227 0.39114610962010953887 -0.63782193599614345203 0.08309066245148018226 -0.36834746654057137771 0.69672407998862484479 -0.65012543991790650022 -0.881386713089615359 -0.22029288168678498594 0.36923330608121995855 -0.14405832474591592773 -0.50209789927327097558 -0.73941890350659944531;0.79610754800259664332 -0.71561787883331784421 -0.5019830529626703175 0.34321063433140946985 -0.63639954096493211999 0.45733991020665804017 -0.66729658623270082796 -0.60283932367407311315 0.51588617318849572246 -0.66690705803727534651 0.5070199784635506246 0.0031645188474530936557 -0.28034085877949566079;0.40243593752526979346 -0.020630697300323859456 1.2967313943810367949 -0.88054593310749529333 -0.59146364866096245994 -0.38416813057434190393 0.45882259863890217932 -0.64505873814520442444 0.91146946035708609202 -0.11680167535705927861 -0.44568584305144287594 0.81291696774512545165 0.10545733078168179064;-0.35073971854067115261 -0.75504472936095845537 0.022469774628944831629 0.52126183687069405082 0.046177059589204511036 -0.50374658365243041303 -1.0437315561756357329 -0.16126405215088357448 0.4386743119986913908 -0.8024240924462976432 -0.65357946728603988351 -0.76002549715105083283 0.7597945044362521827;0.030048735011494548397 -0.82337046410032577182 -0.20233264582361190631 0.89169704372522895497 0.46421350613331596735 -0.1028329185106344329 -0.43342486360648191379 -0.36592848450552384332 -0.16938147426462799028 -0.084007342080424707298 0.53579517696025502627 0.8119619366173286279 -0.8452113313397163763;0.31080813276804125644 -0.30630847574783315324 0.046819836585127436179 -0.39876596049978535463 -0.67249965709326930963 -0.56491210136542391318 0.92864478642544456832 -0.55002877044081233127 -0.019112012015243123875 0.81470527880056242687 0.73509088825456192495 0.75383329007828336898 -0.57782167048248644914;-0.21276738303673170538 -0.86205317256242952606 -0.26385824467218099709 -0.25210547907049879468 -0.52982640047461948551 -0.060767428132613654501 -0.9218064808441603919 -0.64219923368380649187 0.29430457463756065639 0.42405323655140336747 -0.2977616306498808707 -0.81962590252978961836 -0.60578571323921603931;0.47027053656220624278 0.77755911785897491306 -0.39215161739360882009 0.62713368187823947952 -0.11976216123229491139 0.81503225348630325975 0.037244587303001883138 0.34879862001486178213 0.73958632656444367459 0.020533025695252778847 0.58965928097645181616 0.78856799550495249029 -0.45854133962458426543;0.79104737758993459718 0.34485173031878402217 1.1210253119458311044 -0.30678439310256416794 0.14843804237858193584 0.0064363981116914688665 0.64495041159554000743 0.13118270555513861231 0.32112577784139012538 0.064623341777882703507 -0.25742880048461386222 0.75615464812231203418 0.24833614937234765874;0.77091983010873921245 0.16937042613100372623 0.69581766351023510708 0.3125380945357457696 -0.53626275507906195905 0.16783007513186201654 -0.23944840086762078646 -0.57965927570640396471 0.66791341869836029499 -0.79845115175086134318 -0.38101276493500196851 0.84454498640270958543 0.28555735294101763921;0.85690946526790423565 -0.59778472289402084794 0.0052765252653457243512 -0.5525944174833760103 -0.7204669242315343558 0.63690726474955328129 -0.15917436777873941733 -0.26275587236469438723 -0.58345908216050890172 -0.63232605541110276093 -0.61495288246744295169 -0.30540433758485380222 -0.58888870198110943033;-0.58563783692226611954 0.13536785739416393182 -0.9955303140694198305 -0.40754871517411028758 -0.35566395358616498257 -0.2070850385296311158 0.13172917238993406275 0.38177495756165369389 0.61688798507739750487 -0.31887038395483119357 -0.63944497919406373398 -0.78024519454296736853 -1.1135217067338800678;-0.72187314350084919035 0.25454520502449273778 0.075658026599850797256 0.87776798687681067968 -0.77044493894723686811 -0.385483396986218807 -0.4111051819611473146 -0.84896188105110570454 -0.25276360552880822175 0.39387531429473177091 0.26044731618293542885 -0.36886436011907619559 0.84169461559133307293;-0.22750621936307852122 -0.46126939161646618448 -0.24964214745623011793 -0.76504093786160110024 -0.071213332530804779319 0.55127074967213529622 -0.7344773689878837386 0.67987011043697087587 0.30643081633937913066 0.4576754913923127277 -0.89103112548390106529 0.60691860383574580684 0.52929475442877671476;-0.74685225334623095428 -0.62705177227323805056 0.2171880769999611771 -0.32485160351839748039 -0.73915534739531096875 0.71330428274070800665 -0.045155225031733144114 -0.14968015308411966591 -0.69897970010116339257 0.28208988540326301875 0.66107883033910863624 0.76899154850491890922 0.26766038603807879026;0.10949825148527880803 0.24482953168770402175 -0.3963573997120705128 -0.81468414731071081558 0.41813300003250664094 0.30540714263721358002 1.1169054331240981792 -0.31065002940596664338 0.86591114252748646596 0.54904642948918391809 0.26227776536750951886 0.99881129221881781444 -0.2248872907734069948;-0.86492068525254173217 -0.4897246254081292216 0.41226892916400104117 -0.4767101620247061744 -0.26851667800660938834 0.35046979247010090486 0.70327648251135399526 0.73150776445996579245 0.85306457821276371334 0.18124758360549425573 0.52030487015717530319 -0.53088210563092697036 0.26118154169555080069;0.79171114575025780535 -0.82703577583756782143 0.51630594386450412436 -0.91941742837805962019 0.50356887433453623171 -0.09185188891597016736 -0.47996077079678955979 0.12273065986332024058 -0.69892840382115339892 -0.23660578772960003113 0.27110568880962787608 0.60139126367953466001 -0.21062481243545219667;0.038005169981961434145 -0.74371456467144914093 0.65741331096174970838 -0.73811753014177505783 -0.015448152021263001493 -0.59862632828278405928 -0.27989772274026863963 -0.2063683183473392635 -0.51530260206308309279 0.92132604196599787727 0.86632717900170652658 0.51776304377912152344 0.3225061253641226533;-0.79797386968167793864 -0.9495353379958939577 0.86229103584873623145 0.3185368725427986103 0.149035868620167683 -0.048452952564031613603 0.065868424423402252565 0.04231568649965770923 0.50353084758519661701 0.23339605825256398708 1.0596388420634819116 -0.34266284363266164004 0.13162659836836834715;0.1910966550421571708 0.0019359287023184745986 0.75388474389567239342 0.33405878634731195342 -0.53506672793085907625 0.25086957732793691012 0.76339343103685608494 -0.3588461992633001918 0.3843036775574462105 1.3396422495340529757 0.76916771416581308785 0.16056493035580091111 -0.65300049807788440592;-0.67319280368261891212 0.028228914018105226436 0.53320151274707328071 0.87408983256404548801 -0.58034753325995669382 -0.015243317754592845825 -0.20769497630072772387 -0.057259789530262110435 -0.66346045719008261976 0.55794881121354777953 -0.65795785422410746346 0.69100744609699249477 -0.72156972206344049958;0.49104063637550487975 0.65591623383765762512 0.70229036788872156727 0.57561085312828774718 -0.52237844926488830044 0.097026812021349190251 0.2108899996259034626 -0.088448440089329671832 0.66427337414923248726 -0.7499055909904367434 0.60609909245621329532 -0.74672500658100482429 0.43514407816448269495;-0.46068301839467556968 -0.52358362326921259466 0.38854821861498911595 -1.1725618002001478857 0.43706044665305665564 -0.50142869195714068198 0.26881692375006421836 0.75290488329870208783 0.08588143830207478624 -0.54616304943637561387 0.60441759650856463626 0.4471358667873646664 0.063620535042053782959];

% Layer 2
b2 = -0.1672566915762169204;
LW2_1 = [-0.034827141214640720823 -0.63434536184100243084 0.098353871963791500432 -0.14601556352929204174 -0.11858431121243419304 0.60343551320654698067 0.75182344491640862305 0.68650710633116829307 0.018421930839170874705 0.086152148384656360158 1.4071491747057700561 0.23825237759193390596 -0.20100523287156199514 -0.26472032770674486235 -0.24156332063690061362 -0.38277250619979291679 1.4765571392925067595 -0.61250235412120046519 -0.33007486674630864831 0.69525785308554843844 -0.42476038082939326923 -0.23916212997015245945 -0.081934435331478858155 -0.39783454531872958215 -0.38411391240696401983 0.054641014102589903489 0.23724035797485279464 0.19760988040292137846 0.29172612754939314383 -0.54214823250199584148 -0.69410513600567613768 -0.016221448476493462165 -0.32808138830687672005 0.047319060276994819036 -0.12056097245865417256 -0.24165830586142184044 -0.60539323906952569043 -0.32802148547810638934 0.48400479033844578947 -0.067456916412763828772 0.099795179148366788824 0.35513253362134411528 0.18203890787181653543 -0.82494763769045276192 0.42632004341197099473 -0.13329962915049400896 -0.048867302541653827308 0.95636357510758274181 0.35174618953882463845 -0.67804684927687564056 0.5629798411347588516 0.51518021423582371909 -0.1644714383572675187 -0.71352513666424788319 0.63330830093801859793 -0.10240836118312418579 -0.2913806565698681128 -0.01515539546941180836 0.44044707656115378303 -0.035730704596009313367 -0.29422424234374566776 0.17969426294191692683 -0.25164622972527944667 -0.45094077260711395994 -0.81511293320657329797 0.63728247199446519389 -0.75206757061325324454 0.096788532592740839089 0.6552602629388282196 -0.41052234332450304732 0.065826754142229298994 -0.16244968537142551179 0.56501228857268026573 0.24090364412032608254 -0.3988724063116904639 -0.89191511256922928474 1.1399210925690645979 0.10651886445923970659 -1.5433225015667346725 0.7819011575206893383 -0.26064404094809356938 -0.72152577211345703123 1.1875441460743245692 -0.038138691081860777443 -1.5440176655714552556 0.10963268535235184964 -0.35703544105509077422 0.47276125900213389341 0.42134205156831783246 0.15505107137499646308 0.38266664404079087092 -1.2952707898036188716 0.52006308602858386525 0.0061204348323663799319 -0.53729367161716090617 -0.14719353198490864321 -0.53926327854883593371 0.45893817345680215647 -0.23094556698214124824 0.16720289140361599411];

% ===== SIMULATION ========

% Dimensions
Q = size(x1,2); % samples

% Input 1
xp1 = mapminmax_apply(x1,x1_step1_gain,x1_step1_xoffset,x1_step1_ymin);

% Layer 1
a1 = tansig_apply(repmat(b1,1,Q) + IW1_1*xp1);

% Layer 2
a2 = logsig_apply(repmat(b2,1,Q) + LW2_1*a1);

% Output 1
y1 = a2;
end

% ===== MODULE FUNCTIONS ========

% Map Minimum and Maximum Input Processing Function
function y = mapminmax_apply(x,settings_gain,settings_xoffset,settings_ymin)
y = bsxfun(@minus,x,settings_xoffset);
y = bsxfun(@times,y,settings_gain);
y = bsxfun(@plus,y,settings_ymin);
end

% Sigmoid Positive Transfer Function
function a = logsig_apply(n)
a = 1 ./ (1 + exp(-n));
end

% Sigmoid Symmetric Transfer Function
function a = tansig_apply(n)
a = 2 ./ (1 + exp(-2*n)) - 1;
end
